<?xml version="1.0"?>
<opencv_storage>
<stage7>
  <maxWeakCount>11</maxWeakCount>
  <stageThreshold>-1.5900444984436035e+00</stageThreshold>
  <weakClassifiers>
    <_>
      <internalNodes>
        0 -1 1346293 -1.6541251540184021e-01</internalNodes>
      <leafValues>
        3.6867469549179077e-01 -7.9212599992752075e-01</leafValues></_>
    <_>
      <internalNodes>
        0 -1 1706525 5.3708776831626892e-02</internalNodes>
      <leafValues>
        -6.1508071422576904e-01 3.8622123003005981e-01</leafValues></_>
    <_>
      <internalNodes>
        0 -1 274441 -5.0802491605281830e-03</internalNodes>
      <leafValues>
        5.1937294006347656e-01 -3.5639244318008423e-01</leafValues></_>
    <_>
      <internalNodes>
        0 -1 1812 8.5342302918434143e-02</internalNodes>
      <leafValues>
        -3.7554791569709778e-01 3.8511812686920166e-01</leafValues></_>
    <_>
      <internalNodes>
        0 -1 1625249 -6.6398762166500092e-02</internalNodes>
      <leafValues>
        6.9758409261703491e-01 -1.6898712515830994e-01</leafValues></_>
    <_>
      <internalNodes>
        0 -1 1702752 5.8400076813995838e-03</internalNodes>
      <leafValues>
        -2.3559641838073730e-01 6.7461431026458740e-01</leafValues></_>
    <_>
      <internalNodes>
        0 -1 351574 -6.1430226196534932e-05</internalNodes>
      <leafValues>
        -7.3311269283294678e-01 1.7404629290103912e-01</leafValues></_>
    <_>
      <internalNodes>
        0 -1 2530883 -4.6432740055024624e-04</internalNodes>
      <leafValues>
        3.3523011207580566e-01 -4.4552350044250488e-01</leafValues></_>
    <_>
      <internalNodes>
        0 -1 211639 -3.1998641788959503e-03</internalNodes>
      <leafValues>
        4.2404362559318542e-01 -2.6880452036857605e-01</leafValues></_>
    <_>
      <internalNodes>
        0 -1 536560 6.5988623537123203e-03</internalNodes>
      <leafValues>
        -2.1560032665729523e-01 6.0571718215942383e-01</leafValues></_>
    <_>
      <internalNodes>
        0 -1 120817 -5.4474856704473495e-02</internalNodes>
      <leafValues>
        -7.9643070697784424e-01 1.6814854741096497e-01</leafValues></_></weakClassifiers></stage7>
</opencv_storage>
