<?xml version="1.0"?>
<opencv_storage>
<stage4>
  <maxWeakCount>9</maxWeakCount>
  <stageThreshold>-1.5799850225448608e+00</stageThreshold>
  <weakClassifiers>
    <_>
      <internalNodes>
        0 -1 183437 1.5030738711357117e-01</internalNodes>
      <leafValues>
        -7.9228067398071289e-01 6.3555556535720825e-01</leafValues></_>
    <_>
      <internalNodes>
        0 -1 2122393 -1.3303099572658539e-01</internalNodes>
      <leafValues>
        6.5940821170806885e-01 -5.7258433103561401e-01</leafValues></_>
    <_>
      <internalNodes>
        0 -1 578044 1.8909345089923590e-04</internalNodes>
      <leafValues>
        2.1273462474346161e-01 -8.4981602430343628e-01</leafValues></_>
    <_>
      <internalNodes>
        0 -1 2074078 2.7954991906881332e-02</internalNodes>
      <leafValues>
        -2.5781631469726563e-01 5.7941043376922607e-01</leafValues></_>
    <_>
      <internalNodes>
        0 -1 1861448 -6.0511484742164612e-02</internalNodes>
      <leafValues>
        7.2901433706283569e-01 -2.3196634650230408e-01</leafValues></_>
    <_>
      <internalNodes>
        0 -1 2561211 -2.6971422135829926e-02</internalNodes>
      <leafValues>
        4.3775948882102966e-01 -3.1675258278846741e-01</leafValues></_>
    <_>
      <internalNodes>
        0 -1 2552633 1.0658074915409088e-01</internalNodes>
      <leafValues>
        -1.7586022615432739e-01 8.7623566389083862e-01</leafValues></_>
    <_>
      <internalNodes>
        0 -1 5063 1.7608050256967545e-04</internalNodes>
      <leafValues>
        2.6064541935920715e-01 -7.1422934532165527e-01</leafValues></_>
    <_>
      <internalNodes>
        0 -1 2858286 1.5717821661382914e-03</internalNodes>
      <leafValues>
        -3.5904660820960999e-01 4.5728254318237305e-01</leafValues></_></weakClassifiers></stage4>
</opencv_storage>
