<?xml version="1.0"?>
<opencv_storage>
<stage8>
  <maxWeakCount>10</maxWeakCount>
  <stageThreshold>-1.7153567075729370e+00</stageThreshold>
  <weakClassifiers>
    <_>
      <internalNodes>
        0 -1 1254670 -6.2163800001144409e-02</internalNodes>
      <leafValues>
        2.1149897575378418e-01 -8.0461812019348145e-01</leafValues></_>
    <_>
      <internalNodes>
        0 -1 421392 1.5724408626556396e-01</internalNodes>
      <leafValues>
        -4.3231612443923950e-01 6.2744933366775513e-01</leafValues></_>
    <_>
      <internalNodes>
        0 -1 7155 4.8957444960251451e-05</internalNodes>
      <leafValues>
        3.0784192681312561e-01 -6.0985654592514038e-01</leafValues></_>
    <_>
      <internalNodes>
        0 -1 441700 9.1522680595517159e-03</internalNodes>
      <leafValues>
        -2.7926215529441833e-01 6.2511372566223145e-01</leafValues></_>
    <_>
      <internalNodes>
        0 -1 118748 -4.2873532947851345e-05</internalNodes>
      <leafValues>
        -8.2468593120574951e-01 1.6458751261234283e-01</leafValues></_>
    <_>
      <internalNodes>
        0 -1 2435322 6.1403407016769052e-05</internalNodes>
      <leafValues>
        -3.8908818364143372e-01 3.8705635070800781e-01</leafValues></_>
    <_>
      <internalNodes>
        0 -1 1635709 -1.0252341628074646e-02</internalNodes>
      <leafValues>
        9.3107007443904877e-02 -9.6643519401550293e-01</leafValues></_>
    <_>
      <internalNodes>
        0 -1 1466945 -6.2801405787467957e-02</internalNodes>
      <leafValues>
        -8.4931600093841553e-01 1.2457276880741119e-01</leafValues></_>
    <_>
      <internalNodes>
        0 -1 1295404 1.9842667970806360e-03</internalNodes>
      <leafValues>
        -2.6940381526947021e-01 5.7513630390167236e-01</leafValues></_>
    <_>
      <internalNodes>
        0 -1 2332409 -2.4463967420160770e-03</internalNodes>
      <leafValues>
        6.6311335563659668e-01 -2.3077747225761414e-01</leafValues></_></weakClassifiers></stage8>
</opencv_storage>
