<?xml version="1.0"?>
<opencv_storage>
<stage6>
  <maxWeakCount>9</maxWeakCount>
  <stageThreshold>-1.6791661977767944e+00</stageThreshold>
  <weakClassifiers>
    <_>
      <internalNodes>
        0 -1 88184 1.0288390517234802e-01</internalNodes>
      <leafValues>
        -8.4650808572769165e-01 5.0564616918563843e-01</leafValues></_>
    <_>
      <internalNodes>
        0 -1 2383577 6.0881983488798141e-02</internalNodes>
      <leafValues>
        -6.3522297143936157e-01 5.2957975864410400e-01</leafValues></_>
    <_>
      <internalNodes>
        0 -1 191523 -3.7889508530497551e-04</internalNodes>
      <leafValues>
        4.7782969474792480e-01 -4.5118153095245361e-01</leafValues></_>
    <_>
      <internalNodes>
        0 -1 1363838 -6.5943114459514618e-03</internalNodes>
      <leafValues>
        6.0651409626007080e-01 -2.3148469626903534e-01</leafValues></_>
    <_>
      <internalNodes>
        0 -1 701267 -9.8085019271820784e-04</internalNodes>
      <leafValues>
        6.5095484256744385e-01 -1.8643124401569366e-01</leafValues></_>
    <_>
      <internalNodes>
        0 -1 2913516 4.1615264490246773e-04</internalNodes>
      <leafValues>
        -3.4627401828765869e-01 3.8965815305709839e-01</leafValues></_>
    <_>
      <internalNodes>
        0 -1 3013501 5.6175973440986127e-05</internalNodes>
      <leafValues>
        2.3200465738773346e-01 -7.4691188335418701e-01</leafValues></_>
    <_>
      <internalNodes>
        0 -1 816440 -3.6385087296366692e-03</internalNodes>
      <leafValues>
        5.6440389156341553e-01 -2.8644970059394836e-01</leafValues></_>
    <_>
      <internalNodes>
        0 -1 26946 4.7788530355319381e-04</internalNodes>
      <leafValues>
        2.3499530553817749e-01 -7.8650552034378052e-01</leafValues></_></weakClassifiers></stage6>
</opencv_storage>
