<?xml version="1.0"?>
<opencv_storage>
<cascade>
  <stageType>BOOST</stageType>
  <featureType>HAAR</featureType>
  <height>50</height>
  <width>50</width>
  <stageParams>
    <boostType>GAB</boostType>
    <minHitRate>9.9500000476837158e-01</minHitRate>
    <maxFalseAlarm>5.0000000000000000e-01</maxFalseAlarm>
    <weightTrimRate>9.4999999999999996e-01</weightTrimRate>
    <maxDepth>1</maxDepth>
    <maxWeakCount>100</maxWeakCount></stageParams>
  <featureParams>
    <maxCatCount>0</maxCatCount>
    <featSize>1</featSize>
    <mode>BASIC</mode></featureParams>
  <stageNum>9</stageNum>
  <stages>
    <!-- stage 0 -->
    <_>
      <maxWeakCount>2</maxWeakCount>
      <stageThreshold>-1.5143425762653351e-01</stageThreshold>
      <weakClassifiers>
        <_>
          <internalNodes>
            0 -1 21 -9.0760059654712677e-02</internalNodes>
          <leafValues>
            8.3246076107025146e-01 -9.7429305315017700e-01</leafValues></_>
        <_>
          <internalNodes>
            0 -1 12 -1.2582218647003174e-01</internalNodes>
          <leafValues>
            8.2285881042480469e-01 -9.5584940910339355e-01</leafValues></_></weakClassifiers></_>
    <!-- stage 1 -->
    <_>
      <maxWeakCount>3</maxWeakCount>
      <stageThreshold>-1.0569555759429932e+00</stageThreshold>
      <weakClassifiers>
        <_>
          <internalNodes>
            0 -1 20 1.3239054242148995e-03</internalNodes>
          <leafValues>
            -8.7309646606445313e-01 6.6666668653488159e-01</leafValues></_>
        <_>
          <internalNodes>
            0 -1 15 1.2838240712881088e-02</internalNodes>
          <leafValues>
            -8.1957709789276123e-01 6.4073842763900757e-01</leafValues></_>
        <_>
          <internalNodes>
            0 -1 2 1.4925857540220022e-03</internalNodes>
          <leafValues>
            -8.2459753751754761e-01 6.4406681060791016e-01</leafValues></_></weakClassifiers></_>
    <!-- stage 2 -->
    <_>
      <maxWeakCount>3</maxWeakCount>
      <stageThreshold>-1.1626073122024536e+00</stageThreshold>
      <weakClassifiers>
        <_>
          <internalNodes>
            0 -1 25 4.2382750660181046e-02</internalNodes>
          <leafValues>
            -8.9784944057464600e-01 5.4807692766189575e-01</leafValues></_>
        <_>
          <internalNodes>
            0 -1 24 -1.6072263941168785e-02</internalNodes>
          <leafValues>
            7.2325557470321655e-01 -7.6599234342575073e-01</leafValues></_>
        <_>
          <internalNodes>
            0 -1 4 1.2825440615415573e-02</internalNodes>
          <leafValues>
            -9.0600329637527466e-01 5.0123453140258789e-01</leafValues></_></weakClassifiers></_>
    <!-- stage 3 -->
    <_>
      <maxWeakCount>3</maxWeakCount>
      <stageThreshold>-1.1788350343704224e+00</stageThreshold>
      <weakClassifiers>
        <_>
          <internalNodes>
            0 -1 27 -3.9456263184547424e-02</internalNodes>
          <leafValues>
            -9.3877553939819336e-01 7.8723406791687012e-01</leafValues></_>
        <_>
          <internalNodes>
            0 -1 30 -2.9388163238763809e-03</internalNodes>
          <leafValues>
            4.3219429254531860e-01 -9.5524418354034424e-01</leafValues></_>
        <_>
          <internalNodes>
            0 -1 9 -6.5245227888226509e-03</internalNodes>
          <leafValues>
            8.8261288404464722e-01 -6.7225378751754761e-01</leafValues></_></weakClassifiers></_>
    <!-- stage 4 -->
    <_>
      <maxWeakCount>3</maxWeakCount>
      <stageThreshold>-1.1212525367736816e+00</stageThreshold>
      <weakClassifiers>
        <_>
          <internalNodes>
            0 -1 6 6.6484659910202026e-03</internalNodes>
          <leafValues>
            -7.7565634250640869e-01 6.5217393636703491e-01</leafValues></_>
        <_>
          <internalNodes>
            0 -1 28 1.2544760480523109e-02</internalNodes>
          <leafValues>
            -8.9776605367660522e-01 4.2682656645774841e-01</leafValues></_>
        <_>
          <internalNodes>
            0 -1 13 1.4740336686372757e-02</internalNodes>
          <leafValues>
            -6.4902085065841675e-01 5.5216979980468750e-01</leafValues></_></weakClassifiers></_>
    <!-- stage 5 -->
    <_>
      <maxWeakCount>5</maxWeakCount>
      <stageThreshold>-1.2319631576538086e+00</stageThreshold>
      <weakClassifiers>
        <_>
          <internalNodes>
            0 -1 16 1.9612949341535568e-02</internalNodes>
          <leafValues>
            -8.1632655858993530e-01 5.3191488981246948e-01</leafValues></_>
        <_>
          <internalNodes>
            0 -1 22 -2.6029188185930252e-02</internalNodes>
          <leafValues>
            6.2920033931732178e-01 -6.6726833581924438e-01</leafValues></_>
        <_>
          <internalNodes>
            0 -1 8 1.1073315981775522e-03</internalNodes>
          <leafValues>
            -9.4814866781234741e-01 4.0833503007888794e-01</leafValues></_>
        <_>
          <internalNodes>
            0 -1 32 -7.4230004101991653e-03</internalNodes>
          <leafValues>
            6.4618402719497681e-01 -5.1525324583053589e-01</leafValues></_>
        <_>
          <internalNodes>
            0 -1 5 7.4096766184084117e-05</internalNodes>
          <leafValues>
            3.6679226160049438e-01 -1.</leafValues></_></weakClassifiers></_>
    <!-- stage 6 -->
    <_>
      <maxWeakCount>5</maxWeakCount>
      <stageThreshold>-1.1984230279922485e+00</stageThreshold>
      <weakClassifiers>
        <_>
          <internalNodes>
            0 -1 19 -1.8146261572837830e-02</internalNodes>
          <leafValues>
            6.6013073921203613e-01 -7.5175642967224121e-01</leafValues></_>
        <_>
          <internalNodes>
            0 -1 29 -4.2762635275721550e-03</internalNodes>
          <leafValues>
            -8.8801008462905884e-01 3.8564544916152954e-01</leafValues></_>
        <_>
          <internalNodes>
            0 -1 23 9.9228834733366966e-03</internalNodes>
          <leafValues>
            -6.9432199001312256e-01 5.1646864414215088e-01</leafValues></_>
        <_>
          <internalNodes>
            0 -1 5 -4.4701904698740691e-05</internalNodes>
          <leafValues>
            -8.5787624120712280e-01 3.8694253563880920e-01</leafValues></_>
        <_>
          <internalNodes>
            0 -1 11 -1.2280924711376429e-03</internalNodes>
          <leafValues>
            7.9993289709091187e-01 -4.6206766366958618e-01</leafValues></_></weakClassifiers></_>
    <!-- stage 7 -->
    <_>
      <maxWeakCount>6</maxWeakCount>
      <stageThreshold>-1.3163425922393799e+00</stageThreshold>
      <weakClassifiers>
        <_>
          <internalNodes>
            0 -1 26 -1.3970174826681614e-02</internalNodes>
          <leafValues>
            4.4329896569252014e-01 -7.9274612665176392e-01</leafValues></_>
        <_>
          <internalNodes>
            0 -1 31 2.3046113550662994e-02</internalNodes>
          <leafValues>
            -6.7932468652725220e-01 4.2275881767272949e-01</leafValues></_>
        <_>
          <internalNodes>
            0 -1 1 3.0520386062562466e-03</internalNodes>
          <leafValues>
            -5.1709109544754028e-01 6.7618280649185181e-01</leafValues></_>
        <_>
          <internalNodes>
            0 -1 3 1.4812077861279249e-03</internalNodes>
          <leafValues>
            -4.2998689413070679e-01 6.9274741411209106e-01</leafValues></_>
        <_>
          <internalNodes>
            0 -1 10 5.9566006064414978e-02</internalNodes>
          <leafValues>
            -7.4088239669799805e-01 4.4560563564300537e-01</leafValues></_>
        <_>
          <internalNodes>
            0 -1 14 -4.8615243285894394e-03</internalNodes>
          <leafValues>
            7.2095417976379395e-01 -4.3318557739257813e-01</leafValues></_></weakClassifiers></_>
    <!-- stage 8 -->
    <_>
      <maxWeakCount>5</maxWeakCount>
      <stageThreshold>-9.2708504199981689e-01</stageThreshold>
      <weakClassifiers>
        <_>
          <internalNodes>
            0 -1 17 1.2959351763129234e-02</internalNodes>
          <leafValues>
            -8.0740737915039063e-01 6.1142855882644653e-01</leafValues></_>
        <_>
          <internalNodes>
            0 -1 7 -1.2954773381352425e-02</internalNodes>
          <leafValues>
            8.5806262493133545e-01 -5.1242566108703613e-01</leafValues></_>
        <_>
          <internalNodes>
            0 -1 33 -2.9654934769496322e-04</internalNodes>
          <leafValues>
            4.1739550232887268e-01 -8.8203603029251099e-01</leafValues></_>
        <_>
          <internalNodes>
            0 -1 0 -1.7357931938022375e-03</internalNodes>
          <leafValues>
            4.0733599662780762e-01 -7.1937870979309082e-01</leafValues></_>
        <_>
          <internalNodes>
            0 -1 18 -5.8035096153616905e-03</internalNodes>
          <leafValues>
            7.5612521171569824e-01 -4.3198350071907043e-01</leafValues></_></weakClassifiers></_></stages>
  <features>
    <_>
      <rects>
        <_>
          0 12 4 36 -1.</_>
        <_>
          0 12 2 18 2.</_>
        <_>
          2 30 2 18 2.</_></rects>
      <tilted>0</tilted></_>
    <_>
      <rects>
        <_>
          0 14 16 1 -1.</_>
        <_>
          8 14 8 1 2.</_></rects>
      <tilted>0</tilted></_>
    <_>
      <rects>
        <_>
          0 18 4 10 -1.</_>
        <_>
          2 18 2 10 2.</_></rects>
      <tilted>0</tilted></_>
    <_>
      <rects>
        <_>
          0 23 4 4 -1.</_>
        <_>
          2 23 2 4 2.</_></rects>
      <tilted>0</tilted></_>
    <_>
      <rects>
        <_>
          0 28 22 12 -1.</_>
        <_>
          11 28 11 12 2.</_></rects>
      <tilted>0</tilted></_>
    <_>
      <rects>
        <_>
          1 0 1 4 -1.</_>
        <_>
          1 2 1 2 2.</_></rects>
      <tilted>0</tilted></_>
    <_>
      <rects>
        <_>
          2 5 4 33 -1.</_>
        <_>
          4 5 2 33 2.</_></rects>
      <tilted>0</tilted></_>
    <_>
      <rects>
        <_>
          4 31 16 6 -1.</_>
        <_>
          4 34 16 3 2.</_></rects>
      <tilted>0</tilted></_>
    <_>
      <rects>
        <_>
          6 12 6 19 -1.</_>
        <_>
          9 12 3 19 2.</_></rects>
      <tilted>0</tilted></_>
    <_>
      <rects>
        <_>
          7 6 22 6 -1.</_>
        <_>
          7 6 11 3 2.</_>
        <_>
          18 9 11 3 2.</_></rects>
      <tilted>0</tilted></_>
    <_>
      <rects>
        <_>
          10 0 34 47 -1.</_>
        <_>
          27 0 17 47 2.</_></rects>
      <tilted>0</tilted></_>
    <_>
      <rects>
        <_>
          10 29 1 8 -1.</_>
        <_>
          10 33 1 4 2.</_></rects>
      <tilted>0</tilted></_>
    <_>
      <rects>
        <_>
          16 24 32 26 -1.</_>
        <_>
          16 37 32 13 2.</_></rects>
      <tilted>0</tilted></_>
    <_>
      <rects>
        <_>
          18 5 8 41 -1.</_>
        <_>
          22 5 4 41 2.</_></rects>
      <tilted>0</tilted></_>
    <_>
      <rects>
        <_>
          19 9 16 6 -1.</_>
        <_>
          19 9 8 3 2.</_>
        <_>
          27 12 8 3 2.</_></rects>
      <tilted>0</tilted></_>
    <_>
      <rects>
        <_>
          19 19 14 19 -1.</_>
        <_>
          26 19 7 19 2.</_></rects>
      <tilted>0</tilted></_>
    <_>
      <rects>
        <_>
          20 0 23 6 -1.</_>
        <_>
          20 3 23 3 2.</_></rects>
      <tilted>0</tilted></_>
    <_>
      <rects>
        <_>
          22 0 7 8 -1.</_>
        <_>
          22 4 7 4 2.</_></rects>
      <tilted>0</tilted></_>
    <_>
      <rects>
        <_>
          23 44 5 6 -1.</_>
        <_>
          23 47 5 3 2.</_></rects>
      <tilted>0</tilted></_>
    <_>
      <rects>
        <_>
          23 44 20 6 -1.</_>
        <_>
          23 47 20 3 2.</_></rects>
      <tilted>0</tilted></_>
    <_>
      <rects>
        <_>
          25 2 3 4 -1.</_>
        <_>
          25 4 3 2 2.</_></rects>
      <tilted>0</tilted></_>
    <_>
      <rects>
        <_>
          27 12 6 24 -1.</_>
        <_>
          29 12 2 24 2.</_></rects>
      <tilted>0</tilted></_>
    <_>
      <rects>
        <_>
          28 40 15 10 -1.</_>
        <_>
          28 45 15 5 2.</_></rects>
      <tilted>0</tilted></_>
    <_>
      <rects>
        <_>
          30 2 13 8 -1.</_>
        <_>
          30 6 13 4 2.</_></rects>
      <tilted>0</tilted></_>
    <_>
      <rects>
        <_>
          31 40 10 10 -1.</_>
        <_>
          31 45 10 5 2.</_></rects>
      <tilted>0</tilted></_>
    <_>
      <rects>
        <_>
          34 0 14 18 -1.</_>
        <_>
          34 9 14 9 2.</_></rects>
      <tilted>0</tilted></_>
    <_>
      <rects>
        <_>
          34 39 16 7 -1.</_>
        <_>
          42 39 8 7 2.</_></rects>
      <tilted>0</tilted></_>
    <_>
      <rects>
        <_>
          35 45 15 4 -1.</_>
        <_>
          40 45 5 4 2.</_></rects>
      <tilted>0</tilted></_>
    <_>
      <rects>
        <_>
          41 0 3 26 -1.</_>
        <_>
          41 13 3 13 2.</_></rects>
      <tilted>0</tilted></_>
    <_>
      <rects>
        <_>
          42 1 3 2 -1.</_>
        <_>
          43 1 1 2 2.</_></rects>
      <tilted>0</tilted></_>
    <_>
      <rects>
        <_>
          43 4 6 43 -1.</_>
        <_>
          46 4 3 43 2.</_></rects>
      <tilted>0</tilted></_>
    <_>
      <rects>
        <_>
          46 0 3 30 -1.</_>
        <_>
          46 15 3 15 2.</_></rects>
      <tilted>0</tilted></_>
    <_>
      <rects>
        <_>
          47 22 1 28 -1.</_>
        <_>
          47 36 1 14 2.</_></rects>
      <tilted>0</tilted></_>
    <_>
      <rects>
        <_>
          48 10 2 33 -1.</_>
        <_>
          49 10 1 33 2.</_></rects>
      <tilted>0</tilted></_></features></cascade>
</opencv_storage>
